ARMA_MAT_TXT_FN008
100 1
  -5.0888306061632549e-01
  -2.6281729455542524e-01
  -5.4127411561353878e-01
  -1.0945325743364487e-02
  -3.0908208898450251e-03
  -2.3305556979631481e-01
  -2.5851249831697731e-01
   3.2527815902071433e-02
  -4.8819860229136047e-01
   1.2834749928463052e-01
  -1.9663999807914667e-02
  -1.2806595738934723e-01
  -9.8752660937103887e-02
  -3.1295525209954267e-01
  -2.0871105636787268e-01
   1.7989455634933260e-01
   2.9204781079156028e-02
  -4.4917926124458107e-01
  -1.8424155759258110e-01
  -5.5004990101213203e-01
  -2.6821320551890215e-01
  -4.0838901653210913e-02
  -4.9156548807538503e-03
   1.0137381957920977e-01
  -3.4494664970941447e-02
   1.8414180749104503e-05
  -8.5829640528556794e-02
  -6.3907503475075345e-02
  -4.1229333832190274e-01
  -2.7125001162199069e-02
  -2.5508372258814305e-02
  -4.2277172773352367e-01
  -5.3014202797182053e-01
  -1.8469807214845257e-02
  -3.7863843807509845e-02
  -3.5818530160659101e-01
  -2.3471486632545990e-01
  -1.9099203869063608e-01
  -7.6208547635658874e-03
  -1.2487361704239941e-01
  -3.3571247218808686e-01
   3.6539029184073035e-02
  -1.4913218783497961e-01
  -8.8782039825074266e-02
  -7.3852276976311915e-02
  -1.3995030341780290e-01
  -3.0141718657880867e-01
  -2.2952121482526500e-01
  -2.4321123410507228e-01
  -2.1282779028371923e-01
  -3.9326123219188602e-02
  -1.3878766772787987e-02
   9.4855086762086760e-02
  -1.4294042354417114e-01
  -1.1140063320603133e-02
   2.3426731481494767e-01
  -2.8912144656342731e-02
   1.0897016879622634e-01
  -2.5394131069179293e-01
  -3.5522877377412376e-01
  -2.5859703862901862e-01
  -1.1454777209157085e-01
   2.2849260160267448e-02
  -2.2221279267039407e-01
  -3.2191825798049090e-01
   1.3973422619144116e-01
   1.2878673760141668e-01
  -2.1203155417968489e-01
  -2.1762254750460075e-01
  -7.1451943659806005e-04
  -2.5608839159886831e-01
  -1.4730101430494003e-01
  -4.0588520677410855e-01
  -1.3283363860238251e-01
  -1.9050099862792247e-01
  -1.1449604114002576e-01
  -5.6528287482875195e-02
  -2.3043107094863879e-01
   5.5191844780366095e-02
  -6.4364487024160200e-02
   8.2797494983848585e-02
  -4.5308017545572898e-01
  -3.8399056133863052e-01
  -5.3298622773260074e-01
  -4.5155455138600287e-01
  -2.0609792333054600e-01
  -3.3825008165441250e-01
  -4.7437482210524684e-01
  -8.5650463108239538e-02
   5.9688379732683039e-02
   3.5200327838614109e-01
  -1.4527430167026445e-01
  -1.0259371641583259e-01
  -4.7689556441654801e-01
  -3.5802854540362872e-01
  -2.6664535693396862e-01
   7.1425011019224272e-02
  -2.3254079064947675e-01
   2.5144390258099936e-01
  -2.0585806940613693e-01
